FANN_FLO_2.1
num_layers=3
learning_rate=0,700000
connection_rate=1,000000
network_type=0
learning_momentum=0,000000
training_algorithm=2
train_error_function=1
train_stop_function=0
cascade_output_change_fraction=0,010000
quickprop_decay=-0,000100
quickprop_mu=1,750000
rprop_increase_factor=1,200000
rprop_decrease_factor=0,500000
rprop_delta_min=0,000000
rprop_delta_max=50,000000
rprop_delta_zero=0,100000
cascade_output_stagnation_epochs=12
cascade_candidate_change_fraction=0,010000
cascade_candidate_stagnation_epochs=12
cascade_max_out_epochs=150
cascade_min_out_epochs=50
cascade_max_cand_epochs=150
cascade_min_cand_epochs=50
cascade_num_candidate_groups=2
bit_fail_limit=3,49999994039535522461e-01
cascade_candidate_limit=1,00000000000000000000e+03
cascade_weight_multiplier=4,00000005960464477539e-01
cascade_activation_functions_count=10
cascade_activation_functions=3 5 7 8 10 11 14 15 16 17 
cascade_activation_steepnesses_count=4
cascade_activation_steepnesses=2,50000000000000000000e-01 5,00000000000000000000e-01 7,50000000000000000000e-01 1,00000000000000000000e+00 
layer_sizes=7 9 2 
scale_included=0
neurons (num_inputs, activation_function, activation_steepness)=(0, 0, 0,00000000000000000000e+00) (0, 0, 0,00000000000000000000e+00) (0, 0, 0,00000000000000000000e+00) (0, 0, 0,00000000000000000000e+00) (0, 0, 0,00000000000000000000e+00) (0, 0, 0,00000000000000000000e+00) (0, 0, 0,00000000000000000000e+00) (7, 5, 5,00000000000000000000e-01) (7, 5, 5,00000000000000000000e-01) (7, 5, 5,00000000000000000000e-01) (7, 5, 5,00000000000000000000e-01) (7, 5, 5,00000000000000000000e-01) (7, 5, 5,00000000000000000000e-01) (7, 5, 5,00000000000000000000e-01) (7, 5, 5,00000000000000000000e-01) (0, 5, 0,00000000000000000000e+00) (9, 3, 5,00000000000000000000e-01) (0, 3, 0,00000000000000000000e+00) 
connections (connected_to_neuron, weight)=(0, -7,20124816894531250000e+00) (1, 7,81031894683837890625e+00) (2, -4,29752111434936523438e-01) (3, 1,37938868999481201172e+00) (4, -1,00886240005493164062e+01) (5, 3,68796300888061523438e+00) (6, 5,84532213211059570312e+00) (0, 1,89562535285949707031e+00) (1, -5,67917156219482421875e+00) (2, -6,91966891288757324219e-01) (3, 4,35959243774414062500e+00) (4, 2,89242416620254516602e-01) (5, 2,32693982124328613281e+00) (6, -9,18198406696319580078e-01) (0, -5,96777229309082031250e+01) (1, -1,22098864746093750000e+03) (2, -2,53798400878906250000e+02) (3, -3,15031528472900390625e+01) (4, -5,74705543518066406250e+01) (5, -8,43236160278320312500e+01) (6, 2,01017776489257812500e+02) (0, 4,57362890243530273438e+00) (1, -6,96553421020507812500e+01) (2, -9,59030437469482421875e+00) (3, 5,15622673034667968750e+01) (4, 5,86264467239379882812e+00) (5, -2,32756161689758300781e+00) (6, -1,23071432113647460938e+01) (0, 9,14075393676757812500e+01) (1, -1,71843490600585937500e+02) (2, -4,84881210327148437500e+01) (3, 3,10082153320312500000e+02) (4, 1,23749980926513671875e+01) (5, 8,21340408325195312500e+01) (6, -5,88136215209960937500e+01) (0, -1,38955700397491455078e+00) (1, -2,52759242057800292969e+00) (2, 1,11910000443458557129e-01) (3, 2,35634040832519531250e+00) (4, 5,82503259181976318359e-01) (5, 1,27965748310089111328e+00) (6, -1,03974592685699462891e+00) (0, 1,41101562976837158203e+00) (1, -7,91903829574584960938e+00) (2, 1,74650216102600097656e+00) (3, -3,19843435287475585938e+00) (4, -1,37795305252075195312e+00) (5, 2,41087770462036132812e+00) (6, -3,52262949943542480469e+00) (0, 5,23449096679687500000e+02) (1, -6,08830810546875000000e+02) (2, 1,01284063720703125000e+03) (3, 4,69242820739746093750e+01) (4, 7,60476928710937500000e+02) (5, 4,44895782470703125000e+02) (6, -1,87363693237304687500e+02) (7, 1,60000491142272949219e+00) (8, 3,47375369071960449219e+00) (9, -1,37649369239807128906e+00) (10, -1,65100693702697753906e+00) (11, -1,37255954742431640625e+00) (12, -3,52528572082519531250e+00) (13, -3,77300071716308593750e+00) (14, 1,69023716449737548828e+00) (15, -1,00989472866058349609e+00) 
